digraph Tree {
node [shape=box, style="filled, rounded", color="black", fontname=helvetica] ;
edge [fontname=helvetica] ;
0 [label="X[1] <= 0.5\ngini = 0.482\nsamples = 714\nvalue = [424, 290]", fillcolor="#e5813951"] ;
1 [label="X[2] <= 6.5\ngini = 0.326\nsamples = 453\nvalue = [360, 93]", fillcolor="#e58139bd"] ;
0 -> 1 [labeldistance=2.5, labelangle=45, headlabel="True"] ;
2 [label="X[0] <= 2.5\ngini = 0.444\nsamples = 24\nvalue = [8, 16]", fillcolor="#399de57f"] ;
1 -> 2 ;
3 [label="gini = 0.0\nsamples = 10\nvalue = [0, 10]", fillcolor="#399de5ff"] ;
2 -> 3 ;
4 [label="X[3] <= 20.825\ngini = 0.49\nsamples = 14\nvalue = [8, 6]", fillcolor="#e5813940"] ;
2 -> 4 ;
5 [label="gini = 0.0\nsamples = 5\nvalue = [0, 5]", fillcolor="#399de5ff"] ;
4 -> 5 ;
6 [label="X[3] <= 31.331\ngini = 0.198\nsamples = 9\nvalue = [8, 1]", fillcolor="#e58139df"] ;
4 -> 6 ;
7 [label="gini = 0.0\nsamples = 5\nvalue = [5, 0]", fillcolor="#e58139ff"] ;
6 -> 7 ;
8 [label="X[3] <= 35.537\ngini = 0.375\nsamples = 4\nvalue = [3, 1]", fillcolor="#e58139aa"] ;
6 -> 8 ;
9 [label="gini = 0.0\nsamples = 1\nvalue = [0, 1]", fillcolor="#399de5ff"] ;
8 -> 9 ;
10 [label="gini = 0.0\nsamples = 3\nvalue = [3, 0]", fillcolor="#e58139ff"] ;
8 -> 10 ;
11 [label="X[0] <= 1.5\ngini = 0.295\nsamples = 429\nvalue = [352, 77]", fillcolor="#e58139c7"] ;
1 -> 11 ;
12 [label="X[2] <= 53.0\ngini = 0.473\nsamples = 99\nvalue = [61, 38]", fillcolor="#e5813960"] ;
11 -> 12 ;
13 [label="X[3] <= 25.938\ngini = 0.496\nsamples = 77\nvalue = [42, 35]", fillcolor="#e581392a"] ;
12 -> 13 ;
14 [label="gini = 0.0\nsamples = 5\nvalue = [5, 0]", fillcolor="#e58139ff"] ;
13 -> 14 ;
15 [label="X[3] <= 27.135\ngini = 0.5\nsamples = 72\nvalue = [37, 35]", fillcolor="#e581390e"] ;
13 -> 15 ;
16 [label="X[2] <= 43.5\ngini = 0.165\nsamples = 11\nvalue = [1, 10]", fillcolor="#399de5e6"] ;
15 -> 16 ;
17 [label="gini = 0.0\nsamples = 7\nvalue = [0, 7]", fillcolor="#399de5ff"] ;
16 -> 17 ;
18 [label="X[2] <= 46.5\ngini = 0.375\nsamples = 4\nvalue = [1, 3]", fillcolor="#399de5aa"] ;
16 -> 18 ;
19 [label="gini = 0.5\nsamples = 2\nvalue = [1, 1]", fillcolor="#e5813900"] ;
18 -> 19 ;
20 [label="gini = 0.0\nsamples = 2\nvalue = [0, 2]", fillcolor="#399de5ff"] ;
18 -> 20 ;
21 [label="X[3] <= 387.665\ngini = 0.484\nsamples = 61\nvalue = [36, 25]", fillcolor="#e581394e"] ;
15 -> 21 ;
22 [label="X[3] <= 134.642\ngini = 0.476\nsamples = 59\nvalue = [36, 23]", fillcolor="#e581395c"] ;
21 -> 22 ;
23 [label="X[2] <= 27.5\ngini = 0.489\nsamples = 54\nvalue = [31, 23]", fillcolor="#e5813942"] ;
22 -> 23 ;
24 [label="X[2] <= 24.5\ngini = 0.426\nsamples = 13\nvalue = [4, 9]", fillcolor="#399de58e"] ;
23 -> 24 ;
25 [label="X[2] <= 17.5\ngini = 0.49\nsamples = 7\nvalue = [4, 3]", fillcolor="#e5813940"] ;
24 -> 25 ;
26 [label="gini = 0.0\nsamples = 2\nvalue = [0, 2]", fillcolor="#399de5ff"] ;
25 -> 26 ;
27 [label="X[2] <= 22.0\ngini = 0.32\nsamples = 5\nvalue = [4, 1]", fillcolor="#e58139bf"] ;
25 -> 27 ;
28 [label="gini = 0.0\nsamples = 3\nvalue = [3, 0]", fillcolor="#e58139ff"] ;
27 -> 28 ;
29 [label="X[3] <= 71.279\ngini = 0.5\nsamples = 2\nvalue = [1, 1]", fillcolor="#e5813900"] ;
27 -> 29 ;
30 [label="gini = 0.0\nsamples = 1\nvalue = [0, 1]", fillcolor="#399de5ff"] ;
29 -> 30 ;
31 [label="gini = 0.0\nsamples = 1\nvalue = [1, 0]", fillcolor="#e58139ff"] ;
29 -> 31 ;
32 [label="gini = 0.0\nsamples = 6\nvalue = [0, 6]", fillcolor="#399de5ff"] ;
24 -> 32 ;
33 [label="X[3] <= 115.442\ngini = 0.45\nsamples = 41\nvalue = [27, 14]", fillcolor="#e581397b"] ;
23 -> 33 ;
34 [label="X[3] <= 30.25\ngini = 0.426\nsamples = 39\nvalue = [27, 12]", fillcolor="#e581398e"] ;
33 -> 34 ;
35 [label="gini = 0.0\nsamples = 5\nvalue = [5, 0]", fillcolor="#e58139ff"] ;
34 -> 35 ;
36 [label="X[3] <= 32.51\ngini = 0.457\nsamples = 34\nvalue = [22, 12]", fillcolor="#e5813974"] ;
34 -> 36 ;
37 [label="gini = 0.0\nsamples = 3\nvalue = [0, 3]", fillcolor="#399de5ff"] ;
36 -> 37 ;
38 [label="X[2] <= 49.5\ngini = 0.412\nsamples = 31\nvalue = [22, 9]", fillcolor="#e5813997"] ;
36 -> 38 ;
39 [label="X[2] <= 47.5\ngini = 0.444\nsamples = 27\nvalue = [18, 9]", fillcolor="#e581397f"] ;
38 -> 39 ;
40 [label="X[2] <= 43.0\ngini = 0.351\nsamples = 22\nvalue = [17, 5]", fillcolor="#e58139b4"] ;
39 -> 40 ;
41 [label="X[2] <= 36.5\ngini = 0.459\nsamples = 14\nvalue = [9, 5]", fillcolor="#e5813971"] ;
40 -> 41 ;
42 [label="X[3] <= 37.812\ngini = 0.346\nsamples = 9\nvalue = [7, 2]", fillcolor="#e58139b6"] ;
41 -> 42 ;
43 [label="gini = 0.0\nsamples = 1\nvalue = [0, 1]", fillcolor="#399de5ff"] ;
42 -> 43 ;
44 [label="X[3] <= 54.5\ngini = 0.219\nsamples = 8\nvalue = [7, 1]", fillcolor="#e58139db"] ;
42 -> 44 ;
45 [label="gini = 0.0\nsamples = 4\nvalue = [4, 0]", fillcolor="#e58139ff"] ;
44 -> 45 ;
46 [label="X[3] <= 61.8\ngini = 0.375\nsamples = 4\nvalue = [3, 1]", fillcolor="#e58139aa"] ;
44 -> 46 ;
47 [label="gini = 0.0\nsamples = 1\nvalue = [0, 1]", fillcolor="#399de5ff"] ;
46 -> 47 ;
48 [label="gini = 0.0\nsamples = 3\nvalue = [3, 0]", fillcolor="#e58139ff"] ;
46 -> 48 ;
49 [label="X[3] <= 52.277\ngini = 0.48\nsamples = 5\nvalue = [2, 3]", fillcolor="#399de555"] ;
41 -> 49 ;
50 [label="gini = 0.0\nsamples = 1\nvalue = [1, 0]", fillcolor="#e58139ff"] ;
49 -> 50 ;
51 [label="X[3] <= 52.827\ngini = 0.375\nsamples = 4\nvalue = [1, 3]", fillcolor="#399de5aa"] ;
49 -> 51 ;
52 [label="gini = 0.0\nsamples = 2\nvalue = [0, 2]", fillcolor="#399de5ff"] ;
51 -> 52 ;
53 [label="X[2] <= 37.5\ngini = 0.5\nsamples = 2\nvalue = [1, 1]", fillcolor="#e5813900"] ;
51 -> 53 ;
54 [label="gini = 0.0\nsamples = 1\nvalue = [1, 0]", fillcolor="#e58139ff"] ;
53 -> 54 ;
55 [label="gini = 0.0\nsamples = 1\nvalue = [0, 1]", fillcolor="#399de5ff"] ;
53 -> 55 ;
56 [label="gini = 0.0\nsamples = 8\nvalue = [8, 0]", fillcolor="#e58139ff"] ;
40 -> 56 ;
57 [label="X[3] <= 99.994\ngini = 0.32\nsamples = 5\nvalue = [1, 4]", fillcolor="#399de5bf"] ;
39 -> 57 ;
58 [label="gini = 0.0\nsamples = 4\nvalue = [0, 4]", fillcolor="#399de5ff"] ;
57 -> 58 ;
59 [label="gini = 0.0\nsamples = 1\nvalue = [1, 0]", fillcolor="#e58139ff"] ;
57 -> 59 ;
60 [label="gini = 0.0\nsamples = 4\nvalue = [4, 0]", fillcolor="#e58139ff"] ;
38 -> 60 ;
61 [label="gini = 0.0\nsamples = 2\nvalue = [0, 2]", fillcolor="#399de5ff"] ;
33 -> 61 ;
62 [label="gini = 0.0\nsamples = 5\nvalue = [5, 0]", fillcolor="#e58139ff"] ;
22 -> 62 ;
63 [label="gini = 0.0\nsamples = 2\nvalue = [0, 2]", fillcolor="#399de5ff"] ;
21 -> 63 ;
64 [label="X[2] <= 75.5\ngini = 0.236\nsamples = 22\nvalue = [19, 3]", fillcolor="#e58139d7"] ;
12 -> 64 ;
65 [label="X[3] <= 35.077\ngini = 0.172\nsamples = 21\nvalue = [19, 2]", fillcolor="#e58139e4"] ;
64 -> 65 ;
66 [label="gini = 0.0\nsamples = 12\nvalue = [12, 0]", fillcolor="#e58139ff"] ;
65 -> 66 ;
67 [label="X[3] <= 42.502\ngini = 0.346\nsamples = 9\nvalue = [7, 2]", fillcolor="#e58139b6"] ;
65 -> 67 ;
68 [label="gini = 0.0\nsamples = 1\nvalue = [0, 1]", fillcolor="#399de5ff"] ;
67 -> 68 ;
69 [label="X[3] <= 78.244\ngini = 0.219\nsamples = 8\nvalue = [7, 1]", fillcolor="#e58139db"] ;
67 -> 69 ;
70 [label="gini = 0.0\nsamples = 5\nvalue = [5, 0]", fillcolor="#e58139ff"] ;
69 -> 70 ;
71 [label="X[3] <= 96.238\ngini = 0.444\nsamples = 3\nvalue = [2, 1]", fillcolor="#e581397f"] ;
69 -> 71 ;
72 [label="gini = 0.0\nsamples = 1\nvalue = [0, 1]", fillcolor="#399de5ff"] ;
71 -> 72 ;
73 [label="gini = 0.0\nsamples = 2\nvalue = [2, 0]", fillcolor="#e58139ff"] ;
71 -> 73 ;
74 [label="gini = 0.0\nsamples = 1\nvalue = [0, 1]", fillcolor="#399de5ff"] ;
64 -> 74 ;
75 [label="X[2] <= 13.0\ngini = 0.208\nsamples = 330\nvalue = [291, 39]", fillcolor="#e58139dd"] ;
11 -> 75 ;
76 [label="X[3] <= 17.344\ngini = 0.444\nsamples = 12\nvalue = [8, 4]", fillcolor="#e581397f"] ;
75 -> 76 ;
77 [label="gini = 0.0\nsamples = 2\nvalue = [0, 2]", fillcolor="#399de5ff"] ;
76 -> 77 ;
78 [label="X[0] <= 2.5\ngini = 0.32\nsamples = 10\nvalue = [8, 2]", fillcolor="#e58139bf"] ;
76 -> 78 ;
79 [label="gini = 0.0\nsamples = 1\nvalue = [0, 1]", fillcolor="#399de5ff"] ;
78 -> 79 ;
80 [label="X[3] <= 24.212\ngini = 0.198\nsamples = 9\nvalue = [8, 1]", fillcolor="#e58139df"] ;
78 -> 80 ;
81 [label="X[3] <= 19.656\ngini = 0.5\nsamples = 2\nvalue = [1, 1]", fillcolor="#e5813900"] ;
80 -> 81 ;
82 [label="gini = 0.0\nsamples = 1\nvalue = [1, 0]", fillcolor="#e58139ff"] ;
81 -> 82 ;
83 [label="gini = 0.0\nsamples = 1\nvalue = [0, 1]", fillcolor="#399de5ff"] ;
81 -> 83 ;
84 [label="gini = 0.0\nsamples = 7\nvalue = [7, 0]", fillcolor="#e58139ff"] ;
80 -> 84 ;
85 [label="X[3] <= 51.698\ngini = 0.196\nsamples = 318\nvalue = [283, 35]", fillcolor="#e58139df"] ;
75 -> 85 ;
86 [label="X[2] <= 32.25\ngini = 0.186\nsamples = 309\nvalue = [277, 32]", fillcolor="#e58139e2"] ;
85 -> 86 ;
87 [label="X[2] <= 30.75\ngini = 0.222\nsamples = 204\nvalue = [178, 26]", fillcolor="#e58139da"] ;
86 -> 87 ;
88 [label="X[0] <= 2.5\ngini = 0.192\nsamples = 186\nvalue = [166, 20]", fillcolor="#e58139e0"] ;
87 -> 88 ;
89 [label="X[3] <= 11.0\ngini = 0.05\nsamples = 39\nvalue = [38, 1]", fillcolor="#e58139f8"] ;
88 -> 89 ;
90 [label="X[2] <= 21.0\ngini = 0.198\nsamples = 9\nvalue = [8, 1]", fillcolor="#e58139df"] ;
89 -> 90 ;
91 [label="X[2] <= 17.5\ngini = 0.444\nsamples = 3\nvalue = [2, 1]", fillcolor="#e581397f"] ;
90 -> 91 ;
92 [label="gini = 0.0\nsamples = 1\nvalue = [1, 0]", fillcolor="#e58139ff"] ;
91 -> 92 ;
93 [label="gini = 0.5\nsamples = 2\nvalue = [1, 1]", fillcolor="#e5813900"] ;
91 -> 93 ;
94 [label="gini = 0.0\nsamples = 6\nvalue = [6, 0]", fillcolor="#e58139ff"] ;
90 -> 94 ;
95 [label="gini = 0.0\nsamples = 30\nvalue = [30, 0]", fillcolor="#e58139ff"] ;
89 -> 95 ;
96 [label="X[2] <= 26.5\ngini = 0.225\nsamples = 147\nvalue = [128, 19]", fillcolor="#e58139d9"] ;
88 -> 96 ;
97 [label="X[3] <= 2.006\ngini = 0.188\nsamples = 114\nvalue = [102, 12]", fillcolor="#e58139e1"] ;
96 -> 97 ;
98 [label="X[2] <= 22.0\ngini = 0.5\nsamples = 2\nvalue = [1, 1]", fillcolor="#e5813900"] ;
97 -> 98 ;
99 [label="gini = 0.0\nsamples = 1\nvalue = [1, 0]", fillcolor="#e58139ff"] ;
98 -> 99 ;
100 [label="gini = 0.0\nsamples = 1\nvalue = [0, 1]", fillcolor="#399de5ff"] ;
98 -> 100 ;
101 [label="X[3] <= 7.133\ngini = 0.177\nsamples = 112\nvalue = [101, 11]", fillcolor="#e58139e3"] ;
97 -> 101 ;
102 [label="gini = 0.0\nsamples = 10\nvalue = [10, 0]", fillcolor="#e58139ff"] ;
101 -> 102 ;
103 [label="X[3] <= 7.227\ngini = 0.192\nsamples = 102\nvalue = [91, 11]", fillcolor="#e58139e0"] ;
101 -> 103 ;
104 [label="X[2] <= 24.5\ngini = 0.444\nsamples = 3\nvalue = [1, 2]", fillcolor="#399de57f"] ;
103 -> 104 ;
105 [label="gini = 0.0\nsamples = 2\nvalue = [0, 2]", fillcolor="#399de5ff"] ;
104 -> 105 ;
106 [label="gini = 0.0\nsamples = 1\nvalue = [1, 0]", fillcolor="#e58139ff"] ;
104 -> 106 ;
107 [label="X[2] <= 20.25\ngini = 0.165\nsamples = 99\nvalue = [90, 9]", fillcolor="#e58139e6"] ;
103 -> 107 ;
108 [label="X[3] <= 8.104\ngini = 0.236\nsamples = 44\nvalue = [38, 6]", fillcolor="#e58139d7"] ;
107 -> 108 ;
109 [label="X[3] <= 7.91\ngini = 0.34\nsamples = 23\nvalue = [18, 5]", fillcolor="#e58139b8"] ;
108 -> 109 ;
110 [label="X[3] <= 7.44\ngini = 0.124\nsamples = 15\nvalue = [14, 1]", fillcolor="#e58139ed"] ;
109 -> 110 ;
111 [label="X[2] <= 18.5\ngini = 0.444\nsamples = 3\nvalue = [2, 1]", fillcolor="#e581397f"] ;
110 -> 111 ;
112 [label="gini = 0.0\nsamples = 2\nvalue = [2, 0]", fillcolor="#e58139ff"] ;
111 -> 112 ;
113 [label="gini = 0.0\nsamples = 1\nvalue = [0, 1]", fillcolor="#399de5ff"] ;
111 -> 113 ;
114 [label="gini = 0.0\nsamples = 12\nvalue = [12, 0]", fillcolor="#e58139ff"] ;
110 -> 114 ;
115 [label="X[2] <= 18.5\ngini = 0.5\nsamples = 8\nvalue = [4, 4]", fillcolor="#e5813900"] ;
109 -> 115 ;
116 [label="X[2] <= 17.0\ngini = 0.444\nsamples = 3\nvalue = [1, 2]", fillcolor="#399de57f"] ;
115 -> 116 ;
117 [label="gini = 0.5\nsamples = 2\nvalue = [1, 1]", fillcolor="#e5813900"] ;
116 -> 117 ;
118 [label="gini = 0.0\nsamples = 1\nvalue = [0, 1]", fillcolor="#399de5ff"] ;
116 -> 118 ;
119 [label="X[3] <= 7.988\ngini = 0.48\nsamples = 5\nvalue = [3, 2]", fillcolor="#e5813955"] ;
115 -> 119 ;
120 [label="gini = 0.5\nsamples = 2\nvalue = [1, 1]", fillcolor="#e5813900"] ;
119 -> 120 ;
121 [label="X[2] <= 19.5\ngini = 0.444\nsamples = 3\nvalue = [2, 1]", fillcolor="#e581397f"] ;
119 -> 121 ;
122 [label="gini = 0.5\nsamples = 2\nvalue = [1, 1]", fillcolor="#e5813900"] ;
121 -> 122 ;
123 [label="gini = 0.0\nsamples = 1\nvalue = [1, 0]", fillcolor="#e58139ff"] ;
121 -> 123 ;
124 [label="X[2] <= 19.5\ngini = 0.091\nsamples = 21\nvalue = [20, 1]", fillcolor="#e58139f2"] ;
108 -> 124 ;
125 [label="gini = 0.0\nsamples = 16\nvalue = [16, 0]", fillcolor="#e58139ff"] ;
124 -> 125 ;
126 [label="X[3] <= 12.794\ngini = 0.32\nsamples = 5\nvalue = [4, 1]", fillcolor="#e58139bf"] ;
124 -> 126 ;
127 [label="gini = 0.0\nsamples = 4\nvalue = [4, 0]", fillcolor="#e58139ff"] ;
126 -> 127 ;
128 [label="gini = 0.0\nsamples = 1\nvalue = [0, 1]", fillcolor="#399de5ff"] ;
126 -> 128 ;
129 [label="X[3] <= 18.294\ngini = 0.103\nsamples = 55\nvalue = [52, 3]", fillcolor="#e58139f0"] ;
107 -> 129 ;
130 [label="X[3] <= 7.798\ngini = 0.074\nsamples = 52\nvalue = [50, 2]", fillcolor="#e58139f5"] ;
129 -> 130 ;
131 [label="X[3] <= 7.758\ngini = 0.18\nsamples = 20\nvalue = [18, 2]", fillcolor="#e58139e3"] ;
130 -> 131 ;
132 [label="gini = 0.0\nsamples = 13\nvalue = [13, 0]", fillcolor="#e58139ff"] ;
131 -> 132 ;
133 [label="X[2] <= 21.5\ngini = 0.408\nsamples = 7\nvalue = [5, 2]", fillcolor="#e5813999"] ;
131 -> 133 ;
134 [label="X[3] <= 7.785\ngini = 0.5\nsamples = 2\nvalue = [1, 1]", fillcolor="#e5813900"] ;
133 -> 134 ;
135 [label="gini = 0.0\nsamples = 1\nvalue = [1, 0]", fillcolor="#e58139ff"] ;
134 -> 135 ;
136 [label="gini = 0.0\nsamples = 1\nvalue = [0, 1]", fillcolor="#399de5ff"] ;
134 -> 136 ;
137 [label="X[2] <= 24.5\ngini = 0.32\nsamples = 5\nvalue = [4, 1]", fillcolor="#e58139bf"] ;
133 -> 137 ;
138 [label="gini = 0.0\nsamples = 2\nvalue = [2, 0]", fillcolor="#e58139ff"] ;
137 -> 138 ;
139 [label="X[2] <= 25.5\ngini = 0.444\nsamples = 3\nvalue = [2, 1]", fillcolor="#e581397f"] ;
137 -> 139 ;
140 [label="gini = 0.5\nsamples = 2\nvalue = [1, 1]", fillcolor="#e5813900"] ;
139 -> 140 ;
141 [label="gini = 0.0\nsamples = 1\nvalue = [1, 0]", fillcolor="#e58139ff"] ;
139 -> 141 ;
142 [label="gini = 0.0\nsamples = 32\nvalue = [32, 0]", fillcolor="#e58139ff"] ;
130 -> 142 ;
143 [label="X[3] <= 19.681\ngini = 0.444\nsamples = 3\nvalue = [2, 1]", fillcolor="#e581397f"] ;
129 -> 143 ;
144 [label="gini = 0.0\nsamples = 1\nvalue = [0, 1]", fillcolor="#399de5ff"] ;
143 -> 144 ;
145 [label="gini = 0.0\nsamples = 2\nvalue = [2, 0]", fillcolor="#e58139ff"] ;
143 -> 145 ;
146 [label="X[2] <= 27.5\ngini = 0.334\nsamples = 33\nvalue = [26, 7]", fillcolor="#e58139ba"] ;
96 -> 146 ;
147 [label="X[3] <= 7.846\ngini = 0.48\nsamples = 5\nvalue = [2, 3]", fillcolor="#399de555"] ;
146 -> 147 ;
148 [label="gini = 0.0\nsamples = 2\nvalue = [0, 2]", fillcolor="#399de5ff"] ;
147 -> 148 ;
149 [label="X[3] <= 8.279\ngini = 0.444\nsamples = 3\nvalue = [2, 1]", fillcolor="#e581397f"] ;
147 -> 149 ;
150 [label="gini = 0.0\nsamples = 1\nvalue = [1, 0]", fillcolor="#e58139ff"] ;
149 -> 150 ;
151 [label="X[3] <= 11.558\ngini = 0.5\nsamples = 2\nvalue = [1, 1]", fillcolor="#e5813900"] ;
149 -> 151 ;
152 [label="gini = 0.0\nsamples = 1\nvalue = [0, 1]", fillcolor="#399de5ff"] ;
151 -> 152 ;
153 [label="gini = 0.0\nsamples = 1\nvalue = [1, 0]", fillcolor="#e58139ff"] ;
151 -> 153 ;
154 [label="X[2] <= 28.75\ngini = 0.245\nsamples = 28\nvalue = [24, 4]", fillcolor="#e58139d4"] ;
146 -> 154 ;
155 [label="gini = 0.0\nsamples = 11\nvalue = [11, 0]", fillcolor="#e58139ff"] ;
154 -> 155 ;
156 [label="X[3] <= 9.492\ngini = 0.36\nsamples = 17\nvalue = [13, 4]", fillcolor="#e58139b1"] ;
154 -> 156 ;
157 [label="X[2] <= 29.5\ngini = 0.245\nsamples = 14\nvalue = [12, 2]", fillcolor="#e58139d4"] ;
156 -> 157 ;
158 [label="X[3] <= 7.973\ngini = 0.408\nsamples = 7\nvalue = [5, 2]", fillcolor="#e5813999"] ;
157 -> 158 ;
159 [label="X[3] <= 7.885\ngini = 0.48\nsamples = 5\nvalue = [3, 2]", fillcolor="#e5813955"] ;
158 -> 159 ;
160 [label="X[3] <= 7.762\ngini = 0.375\nsamples = 4\nvalue = [3, 1]", fillcolor="#e58139aa"] ;
159 -> 160 ;
161 [label="X[3] <= 7.398\ngini = 0.5\nsamples = 2\nvalue = [1, 1]", fillcolor="#e5813900"] ;
160 -> 161 ;
162 [label="gini = 0.0\nsamples = 1\nvalue = [1, 0]", fillcolor="#e58139ff"] ;
161 -> 162 ;
163 [label="gini = 0.0\nsamples = 1\nvalue = [0, 1]", fillcolor="#399de5ff"] ;
161 -> 163 ;
164 [label="gini = 0.0\nsamples = 2\nvalue = [2, 0]", fillcolor="#e58139ff"] ;
160 -> 164 ;
165 [label="gini = 0.0\nsamples = 1\nvalue = [0, 1]", fillcolor="#399de5ff"] ;
159 -> 165 ;
166 [label="gini = 0.0\nsamples = 2\nvalue = [2, 0]", fillcolor="#e58139ff"] ;
158 -> 166 ;
167 [label="gini = 0.0\nsamples = 7\nvalue = [7, 0]", fillcolor="#e58139ff"] ;
157 -> 167 ;
168 [label="X[3] <= 12.8\ngini = 0.444\nsamples = 3\nvalue = [1, 2]", fillcolor="#399de57f"] ;
156 -> 168 ;
169 [label="gini = 0.0\nsamples = 2\nvalue = [0, 2]", fillcolor="#399de5ff"] ;
168 -> 169 ;
170 [label="gini = 0.0\nsamples = 1\nvalue = [1, 0]", fillcolor="#e58139ff"] ;
168 -> 170 ;
171 [label="X[3] <= 7.815\ngini = 0.444\nsamples = 18\nvalue = [12, 6]", fillcolor="#e581397f"] ;
87 -> 171 ;
172 [label="gini = 0.0\nsamples = 3\nvalue = [3, 0]", fillcolor="#e58139ff"] ;
171 -> 172 ;
173 [label="X[3] <= 7.875\ngini = 0.48\nsamples = 15\nvalue = [9, 6]", fillcolor="#e5813955"] ;
171 -> 173 ;
174 [label="gini = 0.0\nsamples = 1\nvalue = [0, 1]", fillcolor="#399de5ff"] ;
173 -> 174 ;
175 [label="X[3] <= 26.125\ngini = 0.459\nsamples = 14\nvalue = [9, 5]", fillcolor="#e5813971"] ;
173 -> 175 ;
176 [label="X[3] <= 20.925\ngini = 0.486\nsamples = 12\nvalue = [7, 5]", fillcolor="#e5813949"] ;
175 -> 176 ;
177 [label="X[2] <= 31.5\ngini = 0.463\nsamples = 11\nvalue = [7, 4]", fillcolor="#e581396d"] ;
176 -> 177 ;
178 [label="X[0] <= 2.5\ngini = 0.444\nsamples = 3\nvalue = [1, 2]", fillcolor="#399de57f"] ;
177 -> 178 ;
179 [label="X[3] <= 11.75\ngini = 0.5\nsamples = 2\nvalue = [1, 1]", fillcolor="#e5813900"] ;
178 -> 179 ;
180 [label="gini = 0.0\nsamples = 1\nvalue = [1, 0]", fillcolor="#e58139ff"] ;
179 -> 180 ;
181 [label="gini = 0.0\nsamples = 1\nvalue = [0, 1]", fillcolor="#399de5ff"] ;
179 -> 181 ;
182 [label="gini = 0.0\nsamples = 1\nvalue = [0, 1]", fillcolor="#399de5ff"] ;
178 -> 182 ;
183 [label="X[3] <= 8.206\ngini = 0.375\nsamples = 8\nvalue = [6, 2]", fillcolor="#e58139aa"] ;
177 -> 183 ;
184 [label="X[3] <= 7.988\ngini = 0.48\nsamples = 5\nvalue = [3, 2]", fillcolor="#e5813955"] ;
183 -> 184 ;
185 [label="X[3] <= 7.91\ngini = 0.375\nsamples = 4\nvalue = [3, 1]", fillcolor="#e58139aa"] ;
184 -> 185 ;
186 [label="gini = 0.0\nsamples = 1\nvalue = [1, 0]", fillcolor="#e58139ff"] ;
185 -> 186 ;
187 [label="gini = 0.444\nsamples = 3\nvalue = [2, 1]", fillcolor="#e581397f"] ;
185 -> 187 ;
188 [label="gini = 0.0\nsamples = 1\nvalue = [0, 1]", fillcolor="#399de5ff"] ;
184 -> 188 ;
189 [label="gini = 0.0\nsamples = 3\nvalue = [3, 0]", fillcolor="#e58139ff"] ;
183 -> 189 ;
190 [label="gini = 0.0\nsamples = 1\nvalue = [0, 1]", fillcolor="#399de5ff"] ;
176 -> 190 ;
191 [label="gini = 0.0\nsamples = 2\nvalue = [2, 0]", fillcolor="#e58139ff"] ;
175 -> 191 ;
192 [label="X[3] <= 7.91\ngini = 0.108\nsamples = 105\nvalue = [99, 6]", fillcolor="#e58139f0"] ;
86 -> 192 ;
193 [label="gini = 0.0\nsamples = 32\nvalue = [32, 0]", fillcolor="#e58139ff"] ;
192 -> 193 ;
194 [label="X[3] <= 7.988\ngini = 0.151\nsamples = 73\nvalue = [67, 6]", fillcolor="#e58139e8"] ;
192 -> 194 ;
195 [label="X[2] <= 38.0\ngini = 0.5\nsamples = 4\nvalue = [2, 2]", fillcolor="#e5813900"] ;
194 -> 195 ;
196 [label="gini = 0.0\nsamples = 1\nvalue = [1, 0]", fillcolor="#e58139ff"] ;
195 -> 196 ;
197 [label="X[2] <= 41.5\ngini = 0.444\nsamples = 3\nvalue = [1, 2]", fillcolor="#399de57f"] ;
195 -> 197 ;
198 [label="gini = 0.5\nsamples = 2\nvalue = [1, 1]", fillcolor="#e5813900"] ;
197 -> 198 ;
199 [label="gini = 0.0\nsamples = 1\nvalue = [0, 1]", fillcolor="#399de5ff"] ;
197 -> 199 ;
200 [label="X[2] <= 61.0\ngini = 0.109\nsamples = 69\nvalue = [65, 4]", fillcolor="#e58139ef"] ;
194 -> 200 ;
201 [label="X[3] <= 13.25\ngini = 0.087\nsamples = 66\nvalue = [63, 3]", fillcolor="#e58139f3"] ;
200 -> 201 ;
202 [label="X[3] <= 12.938\ngini = 0.157\nsamples = 35\nvalue = [32, 3]", fillcolor="#e58139e7"] ;
201 -> 202 ;
203 [label="X[2] <= 44.5\ngini = 0.08\nsamples = 24\nvalue = [23, 1]", fillcolor="#e58139f4"] ;
202 -> 203 ;
204 [label="gini = 0.0\nsamples = 17\nvalue = [17, 0]", fillcolor="#e58139ff"] ;
203 -> 204 ;
205 [label="X[2] <= 46.0\ngini = 0.245\nsamples = 7\nvalue = [6, 1]", fillcolor="#e58139d4"] ;
203 -> 205 ;
206 [label="gini = 0.0\nsamples = 1\nvalue = [0, 1]", fillcolor="#399de5ff"] ;
205 -> 206 ;
207 [label="gini = 0.0\nsamples = 6\nvalue = [6, 0]", fillcolor="#e58139ff"] ;
205 -> 207 ;
208 [label="X[2] <= 45.0\ngini = 0.298\nsamples = 11\nvalue = [9, 2]", fillcolor="#e58139c6"] ;
202 -> 208 ;
209 [label="X[2] <= 40.5\ngini = 0.375\nsamples = 8\nvalue = [6, 2]", fillcolor="#e58139aa"] ;
208 -> 209 ;
210 [label="X[2] <= 35.0\ngini = 0.278\nsamples = 6\nvalue = [5, 1]", fillcolor="#e58139cc"] ;
209 -> 210 ;
211 [label="gini = 0.444\nsamples = 3\nvalue = [2, 1]", fillcolor="#e581397f"] ;
210 -> 211 ;
212 [label="gini = 0.0\nsamples = 3\nvalue = [3, 0]", fillcolor="#e58139ff"] ;
210 -> 212 ;
213 [label="gini = 0.5\nsamples = 2\nvalue = [1, 1]", fillcolor="#e5813900"] ;
209 -> 213 ;
214 [label="gini = 0.0\nsamples = 3\nvalue = [3, 0]", fillcolor="#e58139ff"] ;
208 -> 214 ;
215 [label="gini = 0.0\nsamples = 31\nvalue = [31, 0]", fillcolor="#e58139ff"] ;
201 -> 215 ;
216 [label="X[2] <= 64.0\ngini = 0.444\nsamples = 3\nvalue = [2, 1]", fillcolor="#e581397f"] ;
200 -> 216 ;
217 [label="gini = 0.0\nsamples = 1\nvalue = [0, 1]", fillcolor="#399de5ff"] ;
216 -> 217 ;
218 [label="gini = 0.0\nsamples = 2\nvalue = [2, 0]", fillcolor="#e58139ff"] ;
216 -> 218 ;
219 [label="X[3] <= 64.998\ngini = 0.444\nsamples = 9\nvalue = [6, 3]", fillcolor="#e581397f"] ;
85 -> 219 ;
220 [label="X[2] <= 30.0\ngini = 0.375\nsamples = 4\nvalue = [1, 3]", fillcolor="#399de5aa"] ;
219 -> 220 ;
221 [label="X[2] <= 27.0\ngini = 0.5\nsamples = 2\nvalue = [1, 1]", fillcolor="#e5813900"] ;
220 -> 221 ;
222 [label="gini = 0.0\nsamples = 1\nvalue = [0, 1]", fillcolor="#399de5ff"] ;
221 -> 222 ;
223 [label="gini = 0.0\nsamples = 1\nvalue = [1, 0]", fillcolor="#e58139ff"] ;
221 -> 223 ;
224 [label="gini = 0.0\nsamples = 2\nvalue = [0, 2]", fillcolor="#399de5ff"] ;
220 -> 224 ;
225 [label="gini = 0.0\nsamples = 5\nvalue = [5, 0]", fillcolor="#e58139ff"] ;
219 -> 225 ;
226 [label="X[0] <= 2.5\ngini = 0.37\nsamples = 261\nvalue = [64, 197]", fillcolor="#399de5ac"] ;
0 -> 226 [labeldistance=2.5, labelangle=-45, headlabel="False"] ;
227 [label="X[2] <= 2.5\ngini = 0.107\nsamples = 159\nvalue = [9, 150]", fillcolor="#399de5f0"] ;
226 -> 227 ;
228 [label="X[0] <= 1.5\ngini = 0.5\nsamples = 2\nvalue = [1, 1]", fillcolor="#e5813900"] ;
227 -> 228 ;
229 [label="gini = 0.0\nsamples = 1\nvalue = [1, 0]", fillcolor="#e58139ff"] ;
228 -> 229 ;
230 [label="gini = 0.0\nsamples = 1\nvalue = [0, 1]", fillcolor="#399de5ff"] ;
228 -> 230 ;
231 [label="X[3] <= 28.856\ngini = 0.097\nsamples = 157\nvalue = [8, 149]", fillcolor="#399de5f1"] ;
227 -> 231 ;
232 [label="X[3] <= 28.231\ngini = 0.185\nsamples = 68\nvalue = [7, 61]", fillcolor="#399de5e2"] ;
231 -> 232 ;
233 [label="X[2] <= 56.0\ngini = 0.163\nsamples = 67\nvalue = [6, 61]", fillcolor="#399de5e6"] ;
232 -> 233 ;
234 [label="X[2] <= 23.5\ngini = 0.142\nsamples = 65\nvalue = [5, 60]", fillcolor="#399de5ea"] ;
233 -> 234 ;
235 [label="gini = 0.0\nsamples = 14\nvalue = [0, 14]", fillcolor="#399de5ff"] ;
234 -> 235 ;
236 [label="X[2] <= 27.5\ngini = 0.177\nsamples = 51\nvalue = [5, 46]", fillcolor="#399de5e3"] ;
234 -> 236 ;
237 [label="X[2] <= 25.5\ngini = 0.397\nsamples = 11\nvalue = [3, 8]", fillcolor="#399de59f"] ;
236 -> 237 ;
238 [label="X[3] <= 13.75\ngini = 0.245\nsamples = 7\nvalue = [1, 6]", fillcolor="#399de5d4"] ;
237 -> 238 ;
239 [label="gini = 0.5\nsamples = 2\nvalue = [1, 1]", fillcolor="#e5813900"] ;
238 -> 239 ;
240 [label="gini = 0.0\nsamples = 5\nvalue = [0, 5]", fillcolor="#399de5ff"] ;
238 -> 240 ;
241 [label="X[3] <= 17.429\ngini = 0.5\nsamples = 4\nvalue = [2, 2]", fillcolor="#e5813900"] ;
237 -> 241 ;
242 [label="gini = 0.0\nsamples = 2\nvalue = [0, 2]", fillcolor="#399de5ff"] ;
241 -> 242 ;
243 [label="gini = 0.0\nsamples = 2\nvalue = [2, 0]", fillcolor="#e58139ff"] ;
241 -> 243 ;
244 [label="X[2] <= 37.0\ngini = 0.095\nsamples = 40\nvalue = [2, 38]", fillcolor="#399de5f2"] ;
236 -> 244 ;
245 [label="gini = 0.0\nsamples = 23\nvalue = [0, 23]", fillcolor="#399de5ff"] ;
244 -> 245 ;
246 [label="X[2] <= 39.0\ngini = 0.208\nsamples = 17\nvalue = [2, 15]", fillcolor="#399de5dd"] ;
244 -> 246 ;
247 [label="gini = 0.0\nsamples = 1\nvalue = [1, 0]", fillcolor="#e58139ff"] ;
246 -> 247 ;
248 [label="X[3] <= 25.965\ngini = 0.117\nsamples = 16\nvalue = [1, 15]", fillcolor="#399de5ee"] ;
246 -> 248 ;
249 [label="gini = 0.0\nsamples = 11\nvalue = [0, 11]", fillcolor="#399de5ff"] ;
248 -> 249 ;
250 [label="X[2] <= 44.5\ngini = 0.32\nsamples = 5\nvalue = [1, 4]", fillcolor="#399de5bf"] ;
248 -> 250 ;
251 [label="X[3] <= 26.86\ngini = 0.444\nsamples = 3\nvalue = [1, 2]", fillcolor="#399de57f"] ;
250 -> 251 ;
252 [label="X[2] <= 43.0\ngini = 0.5\nsamples = 2\nvalue = [1, 1]", fillcolor="#e5813900"] ;
251 -> 252 ;
253 [label="gini = 0.0\nsamples = 1\nvalue = [0, 1]", fillcolor="#399de5ff"] ;
252 -> 253 ;
254 [label="gini = 0.0\nsamples = 1\nvalue = [1, 0]", fillcolor="#e58139ff"] ;
252 -> 254 ;
255 [label="gini = 0.0\nsamples = 1\nvalue = [0, 1]", fillcolor="#399de5ff"] ;
251 -> 255 ;
256 [label="gini = 0.0\nsamples = 2\nvalue = [0, 2]", fillcolor="#399de5ff"] ;
250 -> 256 ;
257 [label="X[0] <= 1.5\ngini = 0.5\nsamples = 2\nvalue = [1, 1]", fillcolor="#e5813900"] ;
233 -> 257 ;
258 [label="gini = 0.0\nsamples = 1\nvalue = [0, 1]", fillcolor="#399de5ff"] ;
257 -> 258 ;
259 [label="gini = 0.0\nsamples = 1\nvalue = [1, 0]", fillcolor="#e58139ff"] ;
257 -> 259 ;
260 [label="gini = 0.0\nsamples = 1\nvalue = [1, 0]", fillcolor="#e58139ff"] ;
232 -> 260 ;
261 [label="X[3] <= 149.035\ngini = 0.022\nsamples = 89\nvalue = [1, 88]", fillcolor="#399de5fc"] ;
231 -> 261 ;
262 [label="gini = 0.0\nsamples = 71\nvalue = [0, 71]", fillcolor="#399de5ff"] ;
261 -> 262 ;
263 [label="X[3] <= 152.506\ngini = 0.105\nsamples = 18\nvalue = [1, 17]", fillcolor="#399de5f0"] ;
261 -> 263 ;
264 [label="X[2] <= 23.5\ngini = 0.5\nsamples = 2\nvalue = [1, 1]", fillcolor="#e5813900"] ;
263 -> 264 ;
265 [label="gini = 0.0\nsamples = 1\nvalue = [0, 1]", fillcolor="#399de5ff"] ;
264 -> 265 ;
266 [label="gini = 0.0\nsamples = 1\nvalue = [1, 0]", fillcolor="#e58139ff"] ;
264 -> 266 ;
267 [label="gini = 0.0\nsamples = 16\nvalue = [0, 16]", fillcolor="#399de5ff"] ;
263 -> 267 ;
268 [label="X[3] <= 20.8\ngini = 0.497\nsamples = 102\nvalue = [55, 47]", fillcolor="#e5813925"] ;
226 -> 268 ;
269 [label="X[2] <= 16.5\ngini = 0.494\nsamples = 79\nvalue = [35, 44]", fillcolor="#399de534"] ;
268 -> 269 ;
270 [label="X[3] <= 15.494\ngini = 0.32\nsamples = 20\nvalue = [4, 16]", fillcolor="#399de5bf"] ;
269 -> 270 ;
271 [label="X[3] <= 13.935\ngini = 0.391\nsamples = 15\nvalue = [4, 11]", fillcolor="#399de5a2"] ;
270 -> 271 ;
272 [label="X[3] <= 10.798\ngini = 0.278\nsamples = 12\nvalue = [2, 10]", fillcolor="#399de5cc"] ;
271 -> 272 ;
273 [label="X[3] <= 7.802\ngini = 0.408\nsamples = 7\nvalue = [2, 5]", fillcolor="#399de599"] ;
272 -> 273 ;
274 [label="gini = 0.0\nsamples = 4\nvalue = [0, 4]", fillcolor="#399de5ff"] ;
273 -> 274 ;
275 [label="X[2] <= 14.5\ngini = 0.444\nsamples = 3\nvalue = [2, 1]", fillcolor="#e581397f"] ;
273 -> 275 ;
276 [label="gini = 0.0\nsamples = 2\nvalue = [2, 0]", fillcolor="#e58139ff"] ;
275 -> 276 ;
277 [label="gini = 0.0\nsamples = 1\nvalue = [0, 1]", fillcolor="#399de5ff"] ;
275 -> 277 ;
278 [label="gini = 0.0\nsamples = 5\nvalue = [0, 5]", fillcolor="#399de5ff"] ;
272 -> 278 ;
279 [label="X[2] <= 14.75\ngini = 0.444\nsamples = 3\nvalue = [2, 1]", fillcolor="#e581397f"] ;
271 -> 279 ;
280 [label="gini = 0.0\nsamples = 2\nvalue = [2, 0]", fillcolor="#e58139ff"] ;
279 -> 280 ;
281 [label="gini = 0.0\nsamples = 1\nvalue = [0, 1]", fillcolor="#399de5ff"] ;
279 -> 281 ;
282 [label="gini = 0.0\nsamples = 5\nvalue = [0, 5]", fillcolor="#399de5ff"] ;
270 -> 282 ;
283 [label="X[2] <= 36.5\ngini = 0.499\nsamples = 59\nvalue = [31, 28]", fillcolor="#e5813919"] ;
269 -> 283 ;
284 [label="X[3] <= 18.629\ngini = 0.499\nsamples = 52\nvalue = [25, 27]", fillcolor="#399de513"] ;
283 -> 284 ;
285 [label="X[3] <= 17.6\ngini = 0.5\nsamples = 49\nvalue = [25, 24]", fillcolor="#e581390a"] ;
284 -> 285 ;
286 [label="X[3] <= 16.4\ngini = 0.499\nsamples = 46\nvalue = [22, 24]", fillcolor="#399de515"] ;
285 -> 286 ;
287 [label="X[3] <= 7.7\ngini = 0.5\nsamples = 44\nvalue = [22, 22]", fillcolor="#e5813900"] ;
286 -> 287 ;
288 [label="X[3] <= 7.0\ngini = 0.32\nsamples = 5\nvalue = [1, 4]", fillcolor="#399de5bf"] ;
287 -> 288 ;
289 [label="gini = 0.0\nsamples = 1\nvalue = [1, 0]", fillcolor="#e58139ff"] ;
288 -> 289 ;
290 [label="gini = 0.0\nsamples = 4\nvalue = [0, 4]", fillcolor="#399de5ff"] ;
288 -> 290 ;
291 [label="X[2] <= 32.5\ngini = 0.497\nsamples = 39\nvalue = [21, 18]", fillcolor="#e5813924"] ;
287 -> 291 ;
292 [label="X[2] <= 19.5\ngini = 0.494\nsamples = 38\nvalue = [21, 17]", fillcolor="#e5813931"] ;
291 -> 292 ;
293 [label="X[3] <= 12.148\ngini = 0.469\nsamples = 8\nvalue = [3, 5]", fillcolor="#399de566"] ;
292 -> 293 ;
294 [label="X[3] <= 7.815\ngini = 0.278\nsamples = 6\nvalue = [1, 5]", fillcolor="#399de5cc"] ;
293 -> 294 ;
295 [label="gini = 0.0\nsamples = 1\nvalue = [1, 0]", fillcolor="#e58139ff"] ;
294 -> 295 ;
296 [label="gini = 0.0\nsamples = 5\nvalue = [0, 5]", fillcolor="#399de5ff"] ;
294 -> 296 ;
297 [label="gini = 0.0\nsamples = 2\nvalue = [2, 0]", fillcolor="#e58139ff"] ;
293 -> 297 ;
298 [label="X[2] <= 21.5\ngini = 0.48\nsamples = 30\nvalue = [18, 12]", fillcolor="#e5813955"] ;
292 -> 298 ;
299 [label="gini = 0.0\nsamples = 4\nvalue = [4, 0]", fillcolor="#e58139ff"] ;
298 -> 299 ;
300 [label="X[2] <= 27.5\ngini = 0.497\nsamples = 26\nvalue = [14, 12]", fillcolor="#e5813924"] ;
298 -> 300 ;
301 [label="X[2] <= 26.5\ngini = 0.492\nsamples = 16\nvalue = [7, 9]", fillcolor="#399de539"] ;
300 -> 301 ;
302 [label="X[3] <= 7.89\ngini = 0.497\nsamples = 13\nvalue = [7, 6]", fillcolor="#e5813924"] ;
301 -> 302 ;
303 [label="X[2] <= 23.5\ngini = 0.32\nsamples = 5\nvalue = [1, 4]", fillcolor="#399de5bf"] ;
302 -> 303 ;
304 [label="gini = 0.0\nsamples = 3\nvalue = [0, 3]", fillcolor="#399de5ff"] ;
303 -> 304 ;
305 [label="X[2] <= 25.5\ngini = 0.5\nsamples = 2\nvalue = [1, 1]", fillcolor="#e5813900"] ;
303 -> 305 ;
306 [label="gini = 0.0\nsamples = 1\nvalue = [1, 0]", fillcolor="#e58139ff"] ;
305 -> 306 ;
307 [label="gini = 0.0\nsamples = 1\nvalue = [0, 1]", fillcolor="#399de5ff"] ;
305 -> 307 ;
308 [label="X[2] <= 23.5\ngini = 0.375\nsamples = 8\nvalue = [6, 2]", fillcolor="#e58139aa"] ;
302 -> 308 ;
309 [label="gini = 0.0\nsamples = 3\nvalue = [3, 0]", fillcolor="#e58139ff"] ;
308 -> 309 ;
310 [label="X[3] <= 15.975\ngini = 0.48\nsamples = 5\nvalue = [3, 2]", fillcolor="#e5813955"] ;
308 -> 310 ;
311 [label="X[3] <= 12.35\ngini = 0.5\nsamples = 4\nvalue = [2, 2]", fillcolor="#e5813900"] ;
310 -> 311 ;
312 [label="X[2] <= 25.5\ngini = 0.444\nsamples = 3\nvalue = [2, 1]", fillcolor="#e581397f"] ;
311 -> 312 ;
313 [label="gini = 0.0\nsamples = 2\nvalue = [2, 0]", fillcolor="#e58139ff"] ;
312 -> 313 ;
314 [label="gini = 0.0\nsamples = 1\nvalue = [0, 1]", fillcolor="#399de5ff"] ;
312 -> 314 ;
315 [label="gini = 0.0\nsamples = 1\nvalue = [0, 1]", fillcolor="#399de5ff"] ;
311 -> 315 ;
316 [label="gini = 0.0\nsamples = 1\nvalue = [1, 0]", fillcolor="#e58139ff"] ;
310 -> 316 ;
317 [label="gini = 0.0\nsamples = 3\nvalue = [0, 3]", fillcolor="#399de5ff"] ;
301 -> 317 ;
318 [label="X[3] <= 8.673\ngini = 0.42\nsamples = 10\nvalue = [7, 3]", fillcolor="#e5813992"] ;
300 -> 318 ;
319 [label="gini = 0.0\nsamples = 4\nvalue = [4, 0]", fillcolor="#e58139ff"] ;
318 -> 319 ;
320 [label="X[2] <= 28.5\ngini = 0.5\nsamples = 6\nvalue = [3, 3]", fillcolor="#e5813900"] ;
318 -> 320 ;
321 [label="gini = 0.0\nsamples = 1\nvalue = [1, 0]", fillcolor="#e58139ff"] ;
320 -> 321 ;
322 [label="X[2] <= 31.5\ngini = 0.48\nsamples = 5\nvalue = [2, 3]", fillcolor="#399de555"] ;
320 -> 322 ;
323 [label="X[2] <= 29.5\ngini = 0.375\nsamples = 4\nvalue = [1, 3]", fillcolor="#399de5aa"] ;
322 -> 323 ;
324 [label="X[3] <= 12.854\ngini = 0.5\nsamples = 2\nvalue = [1, 1]", fillcolor="#e5813900"] ;
323 -> 324 ;
325 [label="gini = 0.0\nsamples = 1\nvalue = [1, 0]", fillcolor="#e58139ff"] ;
324 -> 325 ;
326 [label="gini = 0.0\nsamples = 1\nvalue = [0, 1]", fillcolor="#399de5ff"] ;
324 -> 326 ;
327 [label="gini = 0.0\nsamples = 2\nvalue = [0, 2]", fillcolor="#399de5ff"] ;
323 -> 327 ;
328 [label="gini = 0.0\nsamples = 1\nvalue = [1, 0]", fillcolor="#e58139ff"] ;
322 -> 328 ;
329 [label="gini = 0.0\nsamples = 1\nvalue = [0, 1]", fillcolor="#399de5ff"] ;
291 -> 329 ;
330 [label="gini = 0.0\nsamples = 2\nvalue = [0, 2]", fillcolor="#399de5ff"] ;
286 -> 330 ;
331 [label="gini = 0.0\nsamples = 3\nvalue = [3, 0]", fillcolor="#e58139ff"] ;
285 -> 331 ;
332 [label="gini = 0.0\nsamples = 3\nvalue = [0, 3]", fillcolor="#399de5ff"] ;
284 -> 332 ;
333 [label="X[2] <= 55.0\ngini = 0.245\nsamples = 7\nvalue = [6, 1]", fillcolor="#e58139d4"] ;
283 -> 333 ;
334 [label="gini = 0.0\nsamples = 6\nvalue = [6, 0]", fillcolor="#e58139ff"] ;
333 -> 334 ;
335 [label="gini = 0.0\nsamples = 1\nvalue = [0, 1]", fillcolor="#399de5ff"] ;
333 -> 335 ;
336 [label="X[2] <= 5.5\ngini = 0.227\nsamples = 23\nvalue = [20, 3]", fillcolor="#e58139d9"] ;
268 -> 336 ;
337 [label="X[2] <= 3.5\ngini = 0.48\nsamples = 5\nvalue = [3, 2]", fillcolor="#e5813955"] ;
336 -> 337 ;
338 [label="gini = 0.0\nsamples = 3\nvalue = [3, 0]", fillcolor="#e58139ff"] ;
337 -> 338 ;
339 [label="gini = 0.0\nsamples = 2\nvalue = [0, 2]", fillcolor="#399de5ff"] ;
337 -> 339 ;
340 [label="X[2] <= 34.0\ngini = 0.105\nsamples = 18\nvalue = [17, 1]", fillcolor="#e58139f0"] ;
336 -> 340 ;
341 [label="gini = 0.0\nsamples = 11\nvalue = [11, 0]", fillcolor="#e58139ff"] ;
340 -> 341 ;
342 [label="X[2] <= 38.5\ngini = 0.245\nsamples = 7\nvalue = [6, 1]", fillcolor="#e58139d4"] ;
340 -> 342 ;
343 [label="gini = 0.0\nsamples = 1\nvalue = [0, 1]", fillcolor="#399de5ff"] ;
342 -> 343 ;
344 [label="gini = 0.0\nsamples = 6\nvalue = [6, 0]", fillcolor="#e58139ff"] ;
342 -> 344 ;
}